{
  "generation": 134,
  "fitness": 154258.54383358097,
  "network": {
    "type": "NeuralNetwork",
    "sizes": [
      5,
      4,
      4,
      2
    ],
    "layers": [
      {
        "weights": [],
        "biases": []
      },
      {
        "weights": [
          [
            -1.5520097017288208,
            0.5693150162696838,
            2.8182530403137207,
            0.6119810938835144,
            3.2819595336914062
          ],
          [
            3.1164305210113525,
            0.9093589186668396,
            1.7859138250350952,
            -5.134392738342285,
            -3.799914836883545
          ],
          [
            -0.8838321566581726,
            -0.3884849548339844,
            0.0577329620718956,
            2.7058212757110596,
            1.7677236795425415
          ],
          [
            -1.2947534322738647,
            -0.017159054055809975,
            -0.44726255536079407,
            -3.9540491104125977,
            1.2708747386932373
          ]
        ],
        "biases": [
          1.7807751893997192,
          -0.09766478091478348,
          -0.7358370423316956,
          -0.5661997199058533
        ]
      },
      {
        "weights": [
          [
            1.1938642263412476,
            -2.170016288757324,
            2.777571439743042,
            1.3174561262130737
          ],
          [
            -0.9389199018478394,
            3.21028470993042,
            0.20115065574645996,
            2.595950126647949
          ],
          [
            -0.722777783870697,
            -3.785689115524292,
            1.6428368091583252,
            1.2320103645324707
          ],
          [
            0.1505700945854187,
            0.31693270802497864,
            1.6288340091705322,
            1.2995773553848267
          ]
        ],
        "biases": [
          -1.951034665107727,
          -1.766438364982605,
          1.6764076948165894,
          -0.5806237459182739
        ]
      },
      {
        "weights": [
          [
            -2.0517992973327637,
            3.435985565185547,
            -2.258791923522949,
            2.4795382022857666
          ],
          [
            3.109165906906128,
            -2.0229763984680176,
            3.075860023498535,
            -2.1518611907958984
          ]
        ],
        "biases": [
          1.0162142515182495,
          -1.2894326448440552
        ]
      }
    ],
    "inputLookup": null,
    "inputLookupLength": 0,
    "outputLookup": null,
    "outputLookupLength": 0,
    "options": {
      "inputSize": 0,
      "outputSize": 0,
      "binaryThresh": 0.5,
      "hiddenLayers": [
        4,
        4
      ],
      "activation": "sigmoid"
    },
    "trainOpts": {
      "activation": "sigmoid",
      "iterations": 1,
      "errorThresh": 0.005,
      "log": false,
      "logPeriod": 10,
      "leakyReluAlpha": 0.01,
      "learningRate": 0.3,
      "momentum": 0.1,
      "callbackPeriod": 10,
      "timeout": "Infinity",
      "beta1": 0.9,
      "beta2": 0.999,
      "epsilon": 1e-8
    }
  },
  "exportedAt": "2026-02-28T16:46:38.895Z"
}